0.3866294026374817 0.29035043716430664 2.027384042739868 0.5019224286079407 -1.8154264688491821 -1.7761181592941284 0.6587700843811035 -0.3111136555671692 0.026184476912021637 3.0814433097839355 -1.6271779537200928 0.17388655245304108 1.700053095817566 -0.2985674738883972 1.1915627717971802 -0.7841777205467224 -1.2926905155181885 1.2410780191421509 0.887739896774292 -0.6427783966064453 0.13689473271369934 -0.22502636909484863 1.0903648138046265 -0.2668469250202179 -0.1407657414674759 -0.12376192957162857 -0.005379723850637674 0.21465663611888885 0.658197283744812 2.7305080890655518 -0.5300712585449219 0.30203473567962646 1.0994735956192017 -1.2478302717208862 -0.18294672667980194 0.39883503317832947 -2.071300983428955 -1.8185913562774658 0.5260909199714661 1.2361592054367065 
-0.2278495877981186 0.09969958662986755 0.5244985222816467 -0.08298532664775848 -0.017182139679789543 0.5408174991607666 -0.2374926507472992 1.2200595140457153 1.4946770668029785 -0.27228617668151855 1.8794853687286377 -1.0329279899597168 -0.7116772532463074 -0.7905566692352295 0.4938635230064392 -0.6155751943588257 -0.3605048954486847 0.41412702202796936 -0.827518880367279 -0.13176774978637695 -0.15127740800380707 0.7707966566085815 -0.4201798141002655 -1.458656907081604 -0.9207831621170044 -1.6828482151031494 0.3680657148361206 -0.5906795263290405 0.4135364592075348 1.205403208732605 -1.2276439666748047 1.0948466062545776 1.0251238346099854 1.8331904411315918 -0.4276113510131836 0.21651896834373474 -2.38962721824646 -1.7071233987808228 0.8949808478355408 -1.373484492301941 
-1.4775390625 1.2154914140701294 -1.3082395792007446 0.2575176954269409 -0.7669067978858948 0.6560049653053284 -0.18448702991008759 -1.1774016618728638 -2.1026012897491455 -0.042634040117263794 0.4977703392505646 0.2744865119457245 0.19103845953941345 0.3869113624095917 0.9525330066680908 -0.4255361557006836 -1.0973871946334839 0.08185794204473495 0.7816985845565796 0.5389609932899475 -1.5244132280349731 0.27308592200279236 1.2347007989883423 2.1183176040649414 0.026747167110443115 -0.6456272006034851 -0.8307799100875854 -1.672866702079773 -0.7232511639595032 -1.3326890468597412 -0.5613632798194885 -0.8321578502655029 -0.8708376288414001 1.1780320405960083 -1.1489059925079346 -0.9222478270530701 -0.047337859869003296 -0.31153786182403564 0.7462623715400696 -0.7736413478851318 
2.364776849746704 -0.6250353455543518 0.5013489723205566 -0.5990737676620483 0.6211121678352356 0.8694117665290833 -0.9041770696640015 -0.6804534196853638 -0.8339396715164185 -1.1466960906982422 0.7705961465835571 -0.3290334939956665 -0.3619751036167145 0.47383931279182434 0.1850178837776184 0.16576077044010162 0.9822845458984375 0.2773677110671997 -0.12540382146835327 -1.0897666215896606 0.8145967125892639 1.491519808769226 -0.7975004315376282 -0.640245258808136 -0.5126415491104126 -0.14048247039318085 0.6143313646316528 0.49418091773986816 -0.7218447327613831 0.07031995058059692 1.047494888305664 -0.31080228090286255 1.4402556419372559 -1.2728078365325928 -0.6618430018424988 0.49655747413635254 -0.7356250286102295 -0.4375831186771393 -0.628879964351654 -1.2166846990585327 
0.2333468794822693 0.7702820301055908 -0.08003038167953491 0.5327293872833252 1.7049310207366943 -0.15636621415615082 0.07201296091079712 -1.5250307321548462 -2.434021472930908 1.417983055114746 0.22196654975414276 0.7718102335929871 0.7605704069137573 -0.015273038297891617 -0.17849375307559967 -0.3427542746067047 -0.8767021298408508 0.5551851391792297 -0.05346732586622238 -0.20442353188991547 0.23704491555690765 0.9259109497070312 -0.9166358709335327 -0.7707735896110535 1.4980591535568237 -0.16782958805561066 0.8320118188858032 0.3855113685131073 -0.4671545922756195 -2.41278338432312 0.644593358039856 0.6289700865745544 -0.3994297683238983 -2.33001446723938 -0.023798469454050064 -0.01997668668627739 -0.5386817455291748 0.2978971004486084 0.5249579548835754 -1.4673172235488892 
-1.5064183473587036 -0.11896387487649918 -1.5343124866485596 0.4346954822540283 2.264810085296631 1.6263490915298462 0.655441164970398 1.5671812295913696 -0.849208414554596 0.032181836664676666 0.11723153293132782 1.050371527671814 -1.0998985767364502 0.2101713865995407 0.41829538345336914 -0.7612205147743225 -0.5036346316337585 -0.8175514936447144 -0.3374103307723999 -1.4543784856796265 -1.4145088195800781 -0.23275497555732727 0.5864001512527466 0.1886248141527176 -0.9798473119735718 0.01665676385164261 -0.3268302381038666 -0.42046022415161133 -0.4860737919807434 0.23794260621070862 0.7646377682685852 0.25048941373825073 1.413434386253357 1.394671082496643 0.4324294328689575 -0.6780045628547668 -0.8299129605293274 -1.5274102687835693 0.6290541291236877 0.39409416913986206 
-0.3987365663051605 0.011845376342535019 -0.35699722170829773 0.903343141078949 1.6969281435012817 -1.743421196937561 0.2275087684392929 -1.0766915082931519 -1.8916947841644287 0.5998377203941345 0.35402703285217285 -0.10935473442077637 0.190040722489357 1.3702641725540161 1.1889374256134033 -0.12164820730686188 1.1017608642578125 -0.7412515878677368 -1.1769802570343018 -1.6746101379394531 -1.7060209512710571 -1.121936559677124 -1.8627980947494507 -0.46515727043151855 0.40264415740966797 -1.0593169927597046 0.6002958416938782 0.39210084080696106 1.3816719055175781 0.060457684099674225 0.9664707779884338 0.5957093238830566 1.4064877033233643 -0.01006897073239088 -0.4517994523048401 -0.8628504276275635 -1.0166007280349731 0.2715654671192169 -1.2308529615402222 -0.20290741324424744 
-2.5870554447174072 1.4113105535507202 0.5831313133239746 -1.7145991325378418 0.24645134806632996 0.33577248454093933 -0.2613300383090973 -0.3294455111026764 -1.7079254388809204 -0.31520676612854004 -0.8364457488059998 -0.6118585467338562 0.05839552357792854 0.1306789070367813 -0.839722216129303 1.0290672779083252 0.9094079732894897 -1.1340937614440918 1.5810329914093018 -0.33443307876586914 0.6109705567359924 -0.47001710534095764 0.28973305225372314 0.02964414283633232 -1.200320839881897 -0.3703930974006653 0.24804803729057312 -0.33482882380485535 0.4698769152164459 0.6286935210227966 -0.022481538355350494 -0.381979376077652 0.555306613445282 0.14374038577079773 -0.20548111200332642 -0.8325668573379517 -1.987669825553894 1.720436930656433 1.140882968902588 -0.6988022327423096 
-1.004929780960083 0.6269301176071167 -0.7241756916046143 -1.898323655128479 0.4935101866722107 -0.30642005801200867 -0.8432029485702515 1.592427134513855 1.9565010070800781 0.6082034707069397 0.23498862981796265 1.8020213842391968 0.4730181097984314 -0.6932976841926575 0.3852953314781189 -0.4438624978065491 0.04003744572401047 0.8584980368614197 2.511446475982666 0.053817830979824066 0.3679752051830292 0.7293838262557983 -1.3900268077850342 0.4627910852432251 0.028520239517092705 -0.31885117292404175 -1.2247085571289062 1.8864021301269531 -0.3535679876804352 0.09156700223684311 -1.1319713592529297 -0.7168497443199158 -1.6249362230300903 -0.049684274941682816 -1.315161943435669 0.9485611319541931 -1.338151454925537 -2.3194949626922607 -0.1600721776485443 0.25706708431243896 
0.060607247054576874 1.5084768533706665 0.9191211462020874 0.8257121443748474 -1.5983067750930786 -0.13813157379627228 -0.0013395698042586446 -0.012087800540030003 -0.022572914138436317 1.875762939453125 0.717390775680542 0.3502293825149536 0.23681697249412537 0.2573016583919525 0.2961152195930481 1.6256089210510254 2.669982433319092 1.192807674407959 1.109352946281433 -0.5586986541748047 -1.4390782117843628 0.5777372121810913 0.057420745491981506 -2.0739715099334717 -0.2011685073375702 -1.4959968328475952 -0.27804169058799744 -0.8502364754676819 -0.23535463213920593 -1.2659512758255005 -0.18297886848449707 -2.3004138469696045 -1.1376888751983643 -1.17473566532135 -0.41488444805145264 0.5269927978515625 -1.2543821334838867 0.8964186310768127 -1.2385973930358887 -0.8562631607055664 
-1.3380646705627441 -1.9058022499084473 -1.2225871086120605 -0.8246310353279114 -1.1798851490020752 0.33010226488113403 0.7998945116996765 -0.6282504200935364 -0.6724178791046143 0.9146692752838135 -0.2890346348285675 -0.2793349623680115 1.385962963104248 0.4479895532131195 -0.028372952714562416 -0.1510980874300003 0.23645059764385223 1.8699841499328613 -0.8534692525863647 0.5699359178543091 -1.0177299976348877 -0.1337464153766632 -1.713657259941101 0.5150794386863708 -0.545699417591095 -1.509493350982666 -0.3714764416217804 -0.5366362929344177 -0.5720767974853516 -1.4118708372116089 -0.6515616774559021 0.23360401391983032 0.31444495916366577 1.048539638519287 0.21508146822452545 -0.5816856026649475 -0.11450213938951492 0.0847683772444725 -0.829719603061676 -0.02882235310971737 
1.2533468008041382 -0.6774842739105225 -0.8895171284675598 -0.805712103843689 -0.29168862104415894 -0.9176461696624756 -0.12356579303741455 1.52243173122406 0.7012577652931213 1.01729154586792 -0.6714732050895691 -1.6769089698791504 0.37744536995887756 -0.602318525314331 -1.6085835695266724 -1.6099119186401367 0.2541981339454651 -0.513087272644043 0.06877952069044113 1.0764302015304565 0.7521572113037109 1.0073167085647583 1.797350287437439 0.7209782600402832 0.8351751565933228 0.3460999131202698 0.21042393147945404 -1.0661814212799072 -0.2658134400844574 1.0776960849761963 0.2680787146091461 0.6784999966621399 1.964534878730774 -0.3290058374404907 -0.26013895869255066 0.49713334441185 0.26972851157188416 -0.7818527221679688 2.573929786682129 -0.09200485795736313 
1.4851834774017334 -2.4664275646209717 -0.5668930411338806 0.5999192595481873 0.33526238799095154 -0.36992597579956055 0.2814626097679138 -0.9232565760612488 -0.12628993391990662 1.4130887985229492 1.1537322998046875 -0.7443772554397583 -0.95757657289505 0.44568899273872375 -0.2957402169704437 2.3070268630981445 1.066707730293274 -1.7990310192108154 -0.39289939403533936 -0.48326635360717773 -1.8816089630126953 -0.6536286473274231 -0.23443098366260529 0.08104461431503296 0.38350018858909607 0.21021971106529236 0.3115224838256836 1.485460638999939 0.1340351700782776 -1.1546052694320679 0.31160661578178406 1.4483425617218018 -0.12657497823238373 0.12097809463739395 0.7139875292778015 -0.770305871963501 1.4727504253387451 0.4253029525279999 -0.1585942953824997 1.369566559791565 
-0.5512763857841492 -1.8437381982803345 0.2681732773780823 -0.46864116191864014 0.06384000927209854 -0.22462786734104156 -0.30317482352256775 -0.807331383228302 0.6386408805847168 -0.4531949460506439 0.8927549719810486 -1.0750229358673096 -0.5646511912345886 1.3471574783325195 -0.05071606487035751 1.4206478595733643 -0.09182114154100418 1.4958364963531494 -0.7193753123283386 -0.1706811636686325 -1.6675963401794434 0.1841273009777069 2.0399346351623535 -2.2065820693969727 -0.13788916170597076 0.23004461824893951 -0.11166629940271378 0.07537583261728287 0.0031849995721131563 0.15942317247390747 1.1564104557037354 -1.3604044914245605 -0.9016451835632324 -1.0450894832611084 -1.5547282695770264 -0.2484830617904663 1.2785016298294067 0.09541682153940201 -0.29271143674850464 -0.6011865735054016 
-0.09670250862836838 0.8462225198745728 0.6285707354545593 0.6004843711853027 -0.6522090435028076 -0.4125998914241791 0.3531796634197235 -1.4838532209396362 -1.3727960586547852 -0.23548735678195953 -0.7791588306427002 0.6841330528259277 -0.0059454054571688175 0.2054293155670166 1.5324361324310303 0.5969461798667908 0.10263250768184662 -0.3770703673362732 0.21213683485984802 -0.04852091893553734 -1.470564365386963 -0.3029767572879791 0.09481553733348846 0.27908432483673096 0.3639410138130188 -0.10852314531803131 -0.2927134037017822 -1.6038336753845215 0.6738805770874023 -0.11933282017707825 -0.6607549786567688 -0.08140107244253159 3.292952537536621 0.28596603870391846 0.41098639369010925 1.3673254251480103 -0.3088248670101166 -0.13722701370716095 0.7258843779563904 -0.6070562601089478 
-0.6490983963012695 -1.1517020463943481 1.0678379535675049 0.05758333578705788 -0.022990936413407326 -1.1276850700378418 -1.0820643901824951 2.246347427368164 -0.23452472686767578 -1.1795401573181152 1.0790011882781982 0.7484711408615112 0.9760458469390869 -0.06633442640304565 0.13610051572322845 -0.30941298604011536 0.872305154800415 0.2858233153820038 -0.6685977578163147 -0.9784020781517029 -1.3652174472808838 -1.0265675783157349 1.2778526544570923 0.4627809524536133 -0.1318874955177307 -0.8192126750946045 1.264164924621582 -1.37736976146698 0.9040097594261169 0.4228687584400177 -0.5497143268585205 -0.48183831572532654 -0.7967049479484558 0.6940862536430359 0.5616028308868408 -1.3494952917099 -1.0928210020065308 0.82010418176651 0.052683375775814056 0.12680086493492126 
-0.449585497379303 0.4096373915672302 1.1085199117660522 0.26049524545669556 -0.25048375129699707 0.18559607863426208 0.7828077077865601 -1.2938463687896729 -1.5441924333572388 1.8954674005508423 0.22895455360412598 1.254367470741272 -0.9253479838371277 -0.9591358304023743 0.21298439800739288 -0.27356576919555664 -0.013658246956765652 0.4013892710208893 -0.4197077453136444 1.0848569869995117 -0.22196096181869507 0.5728578567504883 -0.4084863066673279 -1.426747441291809 -0.5601736903190613 0.5364959239959717 0.7587413191795349 -0.032059501856565475 -1.950014352798462 -0.9668712019920349 -0.4107435941696167 -1.894542932510376 0.38426628708839417 -0.07978441566228867 -2.1255545616149902 0.531261682510376 -0.11703186482191086 -1.1340807676315308 2.0258820056915283 0.20261840522289276 
1.845562219619751 0.757509708404541 -1.4054555892944336 0.833817183971405 -0.2901481091976166 0.3481777310371399 -2.263303279876709 -2.0348103046417236 0.9005730152130127 -1.979456901550293 0.5884515643119812 0.1820046603679657 -0.7475000619888306 -0.4244188070297241 -1.116485834121704 -0.8038798570632935 0.7851419448852539 0.6161445379257202 0.5713040828704834 0.7910325527191162 -0.5847100615501404 1.1796095371246338 -0.5345086455345154 -0.47091245651245117 -0.16309989988803864 -0.8743388056755066 -0.36292874813079834 -0.735664963722229 -0.06007208302617073 -0.06068103760480881 1.009082317352295 0.9637733101844788 -0.9411374926567078 -1.638024926185608 -1.6923905611038208 -0.10473455488681793 -0.07807046920061111 0.08968127518892288 -0.3327333629131317 -0.46143966913223267 
1.035183310508728 0.06332069635391235 0.4077686369419098 -0.9559855461120605 -1.5352600812911987 -0.6758177876472473 -1.5642714500427246 1.8235912322998047 0.6956207752227783 0.24123665690422058 1.2581130266189575 0.5270391702651978 0.01868428662419319 -0.13904725015163422 -1.0356359481811523 0.35489892959594727 -0.7810527682304382 -1.0929992198944092 -0.07760041952133179 0.9935520887374878 0.09199939668178558 -0.7354050874710083 0.1832556277513504 1.8660414218902588 0.7693426012992859 -0.7581694722175598 -0.9398735165596008 -1.380865216255188 0.7993869185447693 -0.784214437007904 -1.6336488723754883 -0.9266397356987 1.5939582586288452 0.12000908702611923 1.5620765686035156 -1.3307924270629883 0.498605877161026 0.7940449714660645 -0.14786618947982788 -1.266064167022705 
-0.09061479568481445 0.4677039086818695 1.9730665683746338 -1.3608310222625732 -1.0101593732833862 -1.7453339099884033 -1.3873343467712402 0.10965540260076523 -0.28768017888069153 -0.08352561295032501 0.8033726215362549 -0.1885024756193161 -0.17554502189159393 -1.0329304933547974 0.7256293296813965 -1.593153953552246 0.16379262506961823 0.8139805793762207 0.32745203375816345 0.135797917842865 0.5162484049797058 0.922137439250946 1.3332290649414062 1.2152520418167114 -0.8078022599220276 0.7866508960723877 0.3873385787010193 -1.226292371749878 -1.7705907821655273 0.7390292882919312 0.8518658876419067 -0.21122771501541138 -1.9498380422592163 0.9826930165290833 0.4797285795211792 0.4316166639328003 -0.4168875515460968 1.1044561862945557 -0.8305486440658569 0.6528326869010925 
0.9802542924880981 -0.03229670226573944 -1.0960787534713745 -1.44933021068573 0.8359115719795227 1.1659514904022217 1.0659844875335693 0.8829665184020996 -0.2291003316640854 -0.9675322771072388 -0.5965873003005981 -1.5351413488388062 -0.11812563985586166 0.11854837089776993 -0.3034198582172394 0.7473381757736206 0.4297303557395935 -0.5700422525405884 -0.6848481297492981 0.12925611436367035 0.40683865547180176 -0.19659337401390076 0.8331298232078552 -1.0088385343551636 1.2329301834106445 0.5850043892860413 -2.0310885906219482 0.5685446858406067 1.6063231229782104 -0.5307350754737854 -0.45990708470344543 0.6617919206619263 0.3500179052352905 -0.05605336278676987 0.8390964865684509 0.5545238852500916 -0.05136309564113617 -1.2909049987792969 -0.34840524196624756 -1.6802165508270264 
-0.3092031478881836 0.2617323398590088 0.6354234218597412 0.7954530715942383 0.0063239699229598045 -0.358799546957016 -2.3039896488189697 -0.5002588629722595 0.9016430377960205 -0.9012765288352966 0.7227347493171692 -0.7344609498977661 -0.2192043662071228 -0.6464956998825073 -1.027958631515503 0.5548701286315918 -0.11746774613857269 -0.3719957172870636 -1.2753783464431763 -0.3674571216106415 -0.8925660848617554 -1.8095377683639526 1.940593957901001 -1.2356935739517212 0.3744550049304962 1.1123687028884888 -0.5399319529533386 -1.1111533641815186 -0.2736540138721466 0.5462732315063477 1.8034223318099976 -0.3478592038154602 0.11905298382043839 0.5424168705940247 -1.082344651222229 0.1686406433582306 0.9243079423904419 -0.24289029836654663 0.18588371574878693 0.10055550187826157 
1.502463459968567 -1.0652457475662231 -0.05928533151745796 0.028261082246899605 1.6652549505233765 0.5746676325798035 -0.32372742891311646 1.856399655342102 -1.1463675498962402 -1.3954718112945557 0.49125272035598755 -0.89846271276474 2.514066696166992 0.6006720066070557 0.5133452415466309 0.9686049222946167 1.3401941061019897 -0.09393113851547241 -1.5344631671905518 -0.7520290613174438 1.2368946075439453 -0.7945504188537598 -1.7183477878570557 0.5075560808181763 -0.2903975546360016 1.9308379888534546 1.631162166595459 -0.11510743200778961 0.32012540102005005 0.08270151913166046 0.4061434864997864 -1.169646978378296 1.2699635028839111 1.5034379959106445 0.05772486701607704 -1.202272891998291 0.4738745093345642 -0.47016581892967224 -1.2893834114074707 -0.11138170957565308 
-0.3215591311454773 1.2339085340499878 -0.6184384822845459 -0.6555294990539551 -0.5004184246063232 -0.6685556769371033 1.0698819160461426 0.2995677590370178 -0.8107380867004395 -0.6509462594985962 -0.9462817907333374 -0.25036147236824036 0.5944598913192749 -0.1882430762052536 -0.4921560287475586 -0.3421297073364258 1.2930675745010376 0.5803539156913757 0.009465974755585194 -1.6035857200622559 0.6873643398284912 1.144789695739746 0.501190721988678 0.8744194507598877 -1.065843939781189 1.231258511543274 -1.89518141746521 -0.3139553368091583 0.4291474223136902 -0.8147456645965576 1.2219059467315674 -0.35104984045028687 -0.05946686491370201 1.255359411239624 0.7749749422073364 0.907543957233429 -1.652234435081482 0.4850694537162781 0.9483253359794617 -0.8246249556541443 
0.38208985328674316 1.1036498546600342 -1.142297625541687 -1.0676147937774658 0.8140628933906555 -0.18857251107692719 -0.34823882579803467 0.6108319759368896 -0.42218759655952454 1.940963864326477 0.577938437461853 -0.9955742359161377 -0.013386129401624203 0.25456690788269043 -1.855104684829712 -0.541169285774231 -0.07421733438968658 -0.20334556698799133 0.7430785894393921 -0.5031214356422424 1.110471248626709 -1.4564332962036133 -0.500381588935852 -0.17283783853054047 -0.24341657757759094 -2.392185926437378 1.0633023977279663 -0.5803484320640564 -0.4543277323246002 0.16229650378227234 1.5243148803710938 0.2701432406902313 0.23175768554210663 -1.613206386566162 -0.03837981075048447 0.018844470381736755 -0.8869162201881409 0.22931718826293945 1.536370873451233 -1.754800796508789 
0.023013785481452942 -0.7020434737205505 1.010790228843689 0.42102375626564026 -0.25050926208496094 0.5281925201416016 -0.3303203582763672 -1.7239558696746826 0.2384207546710968 0.3525215983390808 -2.1353883743286133 1.4411038160324097 -0.1497652232646942 0.8962652683258057 -0.23932351171970367 0.4507449269294739 1.1461869478225708 -1.0698413848876953 1.1327705383300781 -0.12208906561136246 0.39368414878845215 0.6330005526542664 -0.8073394894599915 0.7142062187194824 1.5152759552001953 -1.5930992364883423 -0.38516825437545776 -0.8481764793395996 -0.608785092830658 -1.027017593383789 0.053853124380111694 -0.5509607195854187 -1.4449595212936401 1.164623737335205 0.8428894877433777 0.5163994431495667 -1.392842173576355 0.17933408915996552 0.5213669538497925 -0.012963132932782173 
-1.4108963012695312 0.022390956059098244 0.31967878341674805 -0.2736591100692749 0.5186182260513306 -1.153317928314209 1.152884840965271 0.7836388349533081 1.3634318113327026 0.31574907898902893 -1.446650505065918 0.9264878630638123 0.14217716455459595 -0.024059277027845383 -0.9008489847183228 0.8055360913276672 -1.5009831190109253 0.7098059058189392 -0.7221932411193848 -1.156753659248352 -0.03594650328159332 0.7319207787513733 0.34063008427619934 -0.7565982937812805 -1.4035216569900513 0.4432525336742401 1.8535641431808472 0.1422886848449707 -1.9841817617416382 0.2055846005678177 1.0012907981872559 -1.8034217357635498 -0.5357335805892944 1.0425400733947754 -1.6228907108306885 0.6702297329902649 0.31864282488822937 1.3661248683929443 -1.4921456575393677 0.5398445129394531 
0.9328280091285706 -0.3666478991508484 0.1296663135290146 0.949120819568634 -0.7394343018531799 -0.8649374842643738 0.14904963970184326 0.5107631683349609 -1.1989623308181763 -0.19083349406719208 -2.0782697200775146 0.9963451027870178 -0.991188108921051 -1.004858136177063 1.010877251625061 1.2726198434829712 -1.3574970960617065 -0.5522865056991577 0.7339618802070618 -0.5201132297515869 -0.4013121426105499 0.21162723004817963 -0.6249597668647766 -0.7928639054298401 0.1502637267112732 -1.3436973094940186 -0.9448611736297607 0.31883856654167175 -1.5382884740829468 -0.1968533992767334 -0.5669167637825012 -0.8470421433448792 0.7720921635627747 -0.3905506730079651 -1.3643062114715576 -1.3073463439941406 -1.8297910690307617 1.0151565074920654 -0.7116568684577942 1.061883568763733 
-0.39626625180244446 1.9848788976669312 -1.2278804779052734 -1.1125596761703491 -0.5553721785545349 -1.9106003046035767 -0.364637553691864 -0.3764767050743103 0.8790794610977173 -0.30902910232543945 -0.8556690812110901 -0.6283776164054871 -0.5822939872741699 0.19800741970539093 0.10529464483261108 -0.5012831687927246 -0.12024946510791779 0.8031021356582642 -0.46572208404541016 -0.39844319224357605 -0.3853440284729004 -0.5922524929046631 -0.7915341854095459 0.09139968454837799 0.6413447856903076 0.0477159321308136 -1.4868075847625732 1.0383132696151733 -0.1130073145031929 -0.24597522616386414 0.42111846804618835 -0.4355381429195404 -0.14730645716190338 1.329545497894287 0.11069460213184357 0.6642754673957825 -1.0411860942840576 -0.5648809671401978 -0.24011176824569702 0.9699053168296814 
-0.5153043866157532 -0.21790702641010284 -1.213875651359558 0.39437127113342285 0.4968799352645874 -1.4779132604599 2.7799792289733887 1.2322345972061157 -0.8100593686103821 -1.2767348289489746 0.41058042645454407 0.19956368207931519 -0.8149778842926025 0.007000194862484932 0.15604598820209503 0.39804720878601074 2.0230636596679688 1.8200440406799316 -1.2851157188415527 -1.3911347389221191 1.1311688423156738 -0.9380903840065002 0.6320587396621704 -0.07397954165935516 -0.5986150503158569 -0.2683936655521393 -2.647412061691284 -1.9094468355178833 0.5559820532798767 -0.305579274892807 -2.390279769897461 0.5777287483215332 0.0787113830447197 -2.3500454425811768 0.9199069142341614 -1.112317681312561 0.2582243084907532 -0.02660480886697769 0.5193813443183899 -0.9983435869216919 
-0.15242072939872742 0.8530036211013794 -0.8120703101158142 0.06955858319997787 -1.2216018438339233 -0.7446818351745605 0.01505604013800621 -1.0232075452804565 0.18923768401145935 -1.60966157913208 0.014948513358831406 0.9611799120903015 0.07914786785840988 1.1093908548355103 1.0842798948287964 1.2731770277023315 -1.112892508506775 -0.2656920254230499 -1.1602482795715332 -0.7505605816841125 0.379232257604599 0.18715418875217438 -0.3285648822784424 0.2536153197288513 1.1103302240371704 -0.41974252462387085 0.13688205182552338 -0.3943513035774231 -0.16047365963459015 -0.12243691831827164 -0.13434648513793945 0.48948562145233154 2.067317008972168 0.4809623658657074 1.7602509260177612 -0.06695850938558578 0.3550691604614258 0.10191898047924042 0.98396235704422 1.4503767490386963 
-1.320918083190918 1.2111674547195435 -1.4357390403747559 -0.4813190996646881 0.5125935673713684 -1.5141907930374146 2.045257329940796 -0.2757946252822876 -1.9953256845474243 1.0420308113098145 0.977747917175293 -0.1993596851825714 0.8087961077690125 0.588930606842041 -0.12278212606906891 -0.7234174609184265 2.6010496616363525 -0.36835092306137085 -2.874480962753296 0.3987962603569031 1.0185285806655884 -1.2095242738723755 1.4814404249191284 -1.342604637145996 0.12160848826169968 -0.04005131497979164 -0.09557930380105972 -0.24508409202098846 -0.5564417839050293 -1.0823825597763062 3.038790225982666 -0.6267697215080261 -0.22702814638614655 0.17983794212341309 -0.6267365217208862 0.02001068741083145 2.3406670093536377 -0.9300989508628845 -0.300588458776474 0.8094204664230347 
0.1868632733821869 -0.08657974004745483 -0.4628181755542755 -0.03653806075453758 -2.5620086193084717 0.7852113842964172 0.20199629664421082 -1.6714879274368286 0.759894609451294 1.7707982063293457 -0.8497593402862549 -0.7626836895942688 -0.6404796838760376 0.15935321152210236 -0.21513716876506805 1.3853116035461426 1.9395610094070435 -0.5544378757476807 -0.0583268404006958 -0.9383628964424133 -0.4843624532222748 -0.1434011459350586 -0.8082966208457947 0.14347700774669647 -3.487818717956543 -0.24255280196666718 -0.2351011037826538 -1.2638866901397705 0.3219190835952759 -0.8585081696510315 0.5429799556732178 0.0677415132522583 0.9290082454681396 0.4251938760280609 -0.39514580368995667 -0.8209043741226196 0.17731381952762604 0.465358167886734 -1.5064177513122559 0.28639206290245056 
0.03390419855713844 1.0708401203155518 0.26940473914146423 0.025828853249549866 -0.8870011568069458 -0.5256949663162231 -1.1068713665008545 1.030260443687439 -1.4039384126663208 -0.9366913437843323 0.25241178274154663 0.7906772494316101 -0.28055810928344727 -0.07903280854225159 0.026531988754868507 0.2641855478286743 -1.3274812698364258 0.8341864943504333 -1.1852179765701294 -1.110400915145874 0.052265018224716187 1.1263508796691895 -0.8459054231643677 -0.24468180537223816 1.383597493171692 -0.2054305076599121 -1.9893419742584229 0.45664042234420776 -0.6149201393127441 -0.35356926918029785 0.6077285408973694 3.0201337337493896 -0.20055174827575684 -0.09607982635498047 -0.22559067606925964 0.06294725835323334 -1.3023420572280884 -0.1272374391555786 -2.17113995552063 0.4078313708305359 
0.739357054233551 -0.7644301652908325 1.2069354057312012 2.531118154525757 -0.5694749355316162 -1.033461570739746 0.4522724449634552 -1.9412283897399902 -0.9776778221130371 1.1895952224731445 0.9646719694137573 -0.15728242695331573 -0.41177064180374146 -2.555182933807373 -0.3942606449127197 -0.9267359972000122 -1.2139660120010376 -0.3407016098499298 1.333221197128296 0.22886641323566437 -0.04032972827553749 -0.3888716995716095 0.16720667481422424 -1.497575044631958 0.5339100360870361 -0.40122190117836 0.19932693243026733 -0.028911301866173744 -0.501153290271759 -0.19624823331832886 -1.5303186178207397 0.7039451003074646 0.21385975182056427 0.07306789606809616 0.4400573670864105 -1.3882229328155518 -1.3602713346481323 -0.30178871750831604 0.40202823281288147 -1.1695520877838135 
-0.06786239147186279 -0.5132436156272888 -0.907140851020813 0.7560215592384338 0.9468731880187988 1.6917693614959717 -0.6759408116340637 -0.9588524103164673 -1.0364830493927002 -3.8409931659698486 -0.11859577149152756 0.3091851770877838 0.27474239468574524 0.11036364734172821 -0.7495172619819641 -0.2393951267004013 -2.7317347526550293 -0.07410125434398651 -1.227817416191101 1.016013503074646 0.0032175069209188223 -1.6263989210128784 0.23385180532932281 1.5682967901229858 0.054090481251478195 -0.8774816393852234 -1.5375748872756958 -0.11597128957509995 0.08921089768409729 1.084835410118103 -1.3249284029006958 -0.8867284059524536 0.35401976108551025 0.4779817461967468 0.5320164561271667 -1.4700862169265747 -0.8701536655426025 1.1323344707489014 0.1050928607583046 -1.0071029663085938 
0.6463443636894226 -1.2589069604873657 0.9797219038009644 -0.39246267080307007 -0.01989981159567833 0.330374151468277 -0.030283115804195404 -1.3835467100143433 -0.5746431350708008 0.21186450123786926 1.2484461069107056 1.1453666687011719 -0.25271081924438477 0.5061362981796265 0.18145431578159332 -0.06708842515945435 -1.097418189048767 -1.2417049407958984 -0.20781448483467102 -0.415745347738266 -0.4388910233974457 0.883249819278717 1.312585711479187 -0.4404962360858917 -1.3100404739379883 -0.9280686974525452 0.6822797060012817 0.3210059702396393 -0.4157143831253052 -0.35442110896110535 0.12237827479839325 -0.8570064306259155 -0.8062040209770203 -1.2797919511795044 0.2292349636554718 -1.776626467704773 0.3673191964626312 -0.5835750699043274 -1.946091890335083 0.03870972990989685 
0.5768899321556091 -0.7853236198425293 -0.4307316839694977 -1.8224079608917236 1.2248011827468872 0.35100358724594116 -0.9626270532608032 0.7468634247779846 -0.39532050490379333 0.37666571140289307 0.19027774035930634 -0.16023454070091248 -0.14726825058460236 0.9123284220695496 -0.8680189847946167 -1.1431128978729248 -0.46392881870269775 -0.37985876202583313 -0.8312906622886658 -0.9863535165786743 -1.6739345788955688 -0.5922533273696899 -0.1543934941291809 -1.1145516633987427 0.15033991634845734 1.391814112663269 0.8805091977119446 0.2517412602901459 -0.5106680393218994 0.21773207187652588 0.08061841875314713 0.9358846545219421 -1.018491506576538 -0.8981066942214966 -0.2972809672355652 1.9042800664901733 0.40246254205703735 2.0071640014648438 0.13659550249576569 -0.23334969580173492 
-1.129848837852478 -0.10181845724582672 -0.2857035994529724 -1.161922812461853 0.981580913066864 1.5206780433654785 -0.009639711119234562 1.0837514400482178 1.4515572786331177 -0.7481696009635925 0.2983757257461548 -1.9596198797225952 -0.5568792223930359 -1.1365920305252075 -0.7254277467727661 -0.23044227063655853 0.5867486000061035 -0.1070081889629364 0.45285916328430176 -0.09633160382509232 -0.21487005054950714 0.8633314967155457 -0.4845901429653168 0.533838152885437 -0.45616230368614197 -0.6543004512786865 -0.5457884073257446 0.14219534397125244 -0.908885657787323 0.18180444836616516 -0.862548828125 -0.8565152287483215 0.9602054357528687 -0.5267319083213806 1.3912676572799683 -2.0386815071105957 1.046034336090088 0.9667012691497803 0.5230200290679932 0.33777156472206116 
0.37244677543640137 1.3142160177230835 -0.8919787406921387 -0.868254542350769 0.05110917240381241 -1.0806584358215332 0.38550689816474915 0.4465565085411072 0.3110039532184601 1.2204294204711914 1.7820340394973755 0.14422059059143066 0.116843082010746 0.3907107710838318 -0.7283658385276794 0.5668275356292725 -0.3801296055316925 0.1598294973373413 -1.0447109937667847 0.27084434032440186 0.18641510605812073 1.0027536153793335 -0.1925804316997528 1.128839373588562 0.4451066255569458 -0.8546292185783386 0.039411675184965134 1.563774585723877 0.08702307939529419 0.8178935647010803 2.3379147052764893 -0.423862099647522 -0.2349901795387268 1.3080354928970337 1.1654679775238037 -0.42278149724006653 -0.16275162994861603 -1.3536807298660278 -0.5143631100654602 0.9176507592201233 
0.5329830050468445 1.430212140083313 -1.301151156425476 1.4875380992889404 0.7599340081214905 0.7648954391479492 -0.5949704647064209 0.8689877390861511 0.4751972556114197 0.6454237699508667 -1.4210946559906006 2.3223721981048584 -0.30632662773132324 -1.3106251955032349 0.46315717697143555 -1.2566587924957275 0.22717665135860443 0.7704896926879883 -0.12696845829486847 0.3520985245704651 -1.2643024921417236 -0.6312550902366638 0.08988716453313828 0.5297001004219055 0.23807601630687714 1.226953387260437 -1.0210694074630737 0.6931256055831909 0.3938879668712616 0.1923801451921463 -0.8420394062995911 -0.3729270398616791 -0.4799455404281616 0.7168049812316895 1.4592981338500977 0.1827443689107895 -0.5506492257118225 0.37903815507888794 0.8306102752685547 0.595493733882904 
-0.22225616872310638 0.5560356378555298 -0.29040539264678955 0.2098577618598938 0.371711403131485 -1.2480220794677734 0.048626434057950974 1.490497350692749 -0.18536297976970673 0.22907976806163788 0.9473658204078674 0.38470175862312317 0.29445964097976685 -0.8544223308563232 -1.3148651123046875 0.44105109572410583 1.0195428133010864 0.010094891302287579 1.3306714296340942 -1.4965183734893799 1.4386672973632812 0.34226056933403015 0.38713306188583374 0.9217612147331238 2.639965772628784 0.8626054525375366 -0.42711329460144043 1.3142526149749756 -1.4026544094085693 1.8124613761901855 0.33098456263542175 0.16024203598499298 -1.5495078563690186 -2.0121991634368896 -1.7662783861160278 1.4988312721252441 0.960444986820221 0.2797027826309204 0.32841357588768005 0.8165881037712097 
-0.5419716238975525 -1.0458958148956299 -1.7062304019927979 1.1228293180465698 0.7413581609725952 0.08976589143276215 -1.6566150188446045 0.014511646702885628 0.7331497669219971 -1.2236096858978271 0.9420459270477295 -0.27016371488571167 -0.43303728103637695 0.07931379973888397 -0.6724818348884583 -1.8434972763061523 -1.0954036712646484 0.6134963035583496 1.941637635231018 -0.29824864864349365 1.8784085512161255 -1.2649741172790527 1.3566654920578003 0.16501984000205994 -2.0174753665924072 0.12351905554533005 1.6999202966690063 -1.1223692893981934 -0.6406102180480957 1.2957298755645752 0.24210971593856812 -2.619943380355835 0.6502765417098999 -0.6489177346229553 -0.04364769905805588 -0.08992954343557358 -1.1436926126480103 -0.3607144355773926 -0.15596672892570496 -0.8600291609764099 
-0.23230257630348206 0.9410778880119324 0.27325358986854553 -2.593449831008911 0.6955966353416443 -0.500920832157135 1.059309720993042 0.6357671618461609 -0.3891064524650574 1.7880072593688965 1.4325580596923828 0.12333819270133972 -1.0662474632263184 -0.3909333348274231 -0.22168996930122375 -1.4909676313400269 -1.0618810653686523 -0.8400824666023254 -1.235975980758667 0.5467122793197632 -0.5777257680892944 0.7808947563171387 -0.4953819513320923 -1.168569803237915 1.1269171237945557 0.6319034099578857 -0.022453906014561653 0.614547073841095 -2.8031346797943115 -0.19846242666244507 -0.22061309218406677 0.7801597118377686 1.8421554565429688 -0.758140504360199 1.0777382850646973 -0.7543875575065613 1.6252756118774414 0.5111184120178223 0.30899959802627563 0.37927180528640747 
-0.3538582921028137 -0.06405258178710938 1.4453208446502686 -0.055526409298181534 0.9657076597213745 -0.4278455376625061 -0.13713973760604858 0.5913121700286865 0.4105086624622345 -0.14585790038108826 0.24334686994552612 1.4309099912643433 -1.9433743953704834 0.23414672911167145 0.47619345784187317 2.111093759536743 1.4976212978363037 0.20814892649650574 -1.686301350593567 -0.17496775090694427 0.08881763368844986 -0.16169407963752747 -0.6376444101333618 -1.0560702085494995 2.3868062496185303 -1.5835893154144287 -1.2902414798736572 -0.9707261919975281 1.4800347089767456 0.3293602466583252 -0.7854330539703369 0.2219904512166977 1.1619694232940674 -1.4707826375961304 -0.22042371332645416 2.3275938034057617 2.0865890979766846 0.6409838199615479 -0.3166550099849701 0.676405131816864 
-0.3314932584762573 0.48211291432380676 -1.071032166481018 1.2814708948135376 -1.1312379837036133 -0.47998183965682983 -0.05201452225446701 0.45415350794792175 -1.4987660646438599 0.23316125571727753 -0.1294436901807785 0.751366913318634 -1.2666707038879395 -1.839379072189331 -0.8581705689430237 1.3729515075683594 -0.00377644132822752 -0.14737965166568756 0.6618388891220093 -0.36170196533203125 0.5252374410629272 -1.3726438283920288 -0.49120527505874634 -0.7249584197998047 0.6222123503684998 -0.28121739625930786 -1.3344796895980835 0.6877315640449524 -0.11006943881511688 0.16474995017051697 -0.1328396052122116 0.04786808416247368 0.6677714586257935 0.979565441608429 0.016978705301880836 -0.07230053842067719 -0.02121661603450775 -0.6643956899642944 -1.223247766494751 -1.5100897550582886 
0.0160573348402977 0.9131929278373718 1.43919038772583 1.1165038347244263 0.6742683053016663 -0.27730631828308105 -1.0088553428649902 0.5879680514335632 -1.3822554349899292 -0.24981890618801117 -0.2641037404537201 0.35886913537979126 0.6621702909469604 -1.2553929090499878 0.595831036567688 -1.0975159406661987 -1.2879937887191772 -0.9194973111152649 -0.056635692715644836 -0.3652344346046448 0.6098963618278503 0.2919277548789978 -0.971996545791626 -1.541325330734253 -1.89566171169281 -0.7410394549369812 -0.13806399703025818 -1.6727523803710938 -1.5093612670898438 1.1350854635238647 -0.1808319240808487 0.18860816955566406 -2.3932266235351562 0.4124348759651184 0.9447031617164612 -0.36082231998443604 2.58624529838562 0.2074790596961975 -0.3940979838371277 0.969066858291626 
0.29791614413261414 0.9343732595443726 1.519674301147461 0.20307236909866333 1.3461506366729736 0.37338316440582275 -1.1349902153015137 2.134647846221924 1.1509391069412231 -0.3768555521965027 -0.11470308154821396 -0.5420699715614319 1.385077953338623 -1.347152829170227 -1.5642545223236084 1.4194239377975464 0.2928358316421509 0.7629106044769287 0.3095191419124603 1.0094987154006958 -0.30710944533348083 1.3892568349838257 -1.33101224899292 -0.8955504894256592 -0.500129759311676 1.5337328910827637 1.350901484489441 1.1017969846725464 -2.250354766845703 2.008629560470581 -1.5030654668807983 -0.584179699420929 -1.5374841690063477 -0.8189846277236938 -0.7640886306762695 0.2943308353424072 0.6221851110458374 -1.7830429077148438 -1.9418448209762573 -0.6282199025154114 
-0.21444562077522278 0.9527902007102966 -0.8293430209159851 -1.7361587285995483 0.2641797959804535 -0.4029529094696045 0.8295618295669556 0.14094527065753937 -0.427793949842453 1.0239477157592773 -0.29785412549972534 1.5317895412445068 -1.0815420150756836 1.732454538345337 0.44478628039360046 -0.6048372983932495 0.44018980860710144 1.2520805597305298 -0.4084598422050476 -1.4278063774108887 -1.4962445497512817 1.0531501770019531 -0.43491047620773315 0.38620129227638245 -0.2585822641849518 1.434706449508667 -0.1843324452638626 -1.3353490829467773 1.1318488121032715 -2.101116895675659 0.6800399422645569 -0.5797622799873352 1.0905510187149048 -1.7963120937347412 -0.8984112739562988 -1.403638482093811 0.8810638785362244 0.2323659062385559 0.29315757751464844 1.190924048423767 
0.4492243528366089 0.4286061227321625 0.41266974806785583 -1.6668444871902466 -1.338587999343872 -0.4379254877567291 0.35328447818756104 0.9063990712165833 0.3209744989871979 0.2644895315170288 0.6629907488822937 -0.4897627532482147 -0.23758786916732788 -0.9446561932563782 1.9320666790008545 -2.213291883468628 -0.019633010029792786 -1.1926922798156738 0.5451549291610718 0.46724259853363037 0.06588315963745117 1.726542353630066 0.9230827689170837 1.0978176593780518 1.0405120849609375 0.6498985886573792 -0.10420500487089157 -0.2396092712879181 0.14326918125152588 -1.575648307800293 -0.5449702739715576 1.5377562046051025 0.32087695598602295 0.9978963136672974 0.3070507049560547 0.021133529022336006 -0.9474576115608215 0.4703018069267273 1.1916799545288086 0.7214870452880859 
-1.748544454574585 -0.39596837759017944 0.9449084997177124 -0.2654274106025696 0.33880069851875305 2.058751106262207 -1.2598752975463867 -0.37647438049316406 -0.8684089779853821 1.0109305381774902 0.33003559708595276 0.6030858159065247 -1.5876377820968628 -0.8625677824020386 0.2637360394001007 1.2109229564666748 -1.016135573387146 -0.4605475664138794 -1.8271641731262207 0.9551473259925842 -2.008643388748169 -1.4758092164993286 -1.0970261096954346 0.01435844600200653 0.3434304893016815 -0.13003399968147278 1.7433816194534302 0.009779759682714939 0.9621071219444275 1.364774227142334 0.6931707859039307 1.0829148292541504 0.15556024014949799 -0.5479617714881897 -1.1461375951766968 -0.4867243468761444 -1.3192291259765625 -1.137765645980835 0.013197255320847034 -0.21797457337379456 
-0.17051567137241364 -0.40710514783859253 -1.2356703281402588 -0.6115880012512207 0.4669382572174072 0.6668832898139954 1.51055908203125 -0.2757209837436676 -0.22514235973358154 0.40614792704582214 1.9853566884994507 -1.5061966180801392 0.6563752889633179 -1.1340047121047974 0.13839568197727203 0.8708340525627136 0.9487659931182861 0.058982010930776596 0.3240348994731903 -0.4129871428012848 1.2662721872329712 -1.9789716005325317 0.5254582166671753 0.3506956398487091 -1.3617686033248901 -0.20767457783222198 0.8627263903617859 -0.29529014229774475 0.7958198189735413 0.35430559515953064 0.8513327836990356 -0.1332094818353653 0.8123183250427246 1.3528462648391724 0.974398672580719 0.23533965647220612 1.0629587173461914 0.4628576934337616 -1.635438323020935 -0.8014009594917297 
-0.8442071080207825 0.20304539799690247 -0.7287952303886414 -1.4513555765151978 0.47286611795425415 -0.24690738320350647 -1.1499439477920532 0.8826292753219604 -2.362035036087036 -0.25771257281303406 0.08650472015142441 0.9855364561080933 0.1120961382985115 1.5395433902740479 -0.12077773362398148 -1.1203277111053467 -2.4233040809631348 -1.0358092784881592 -0.5687016844749451 -0.2717021703720093 -1.1681609153747559 0.15318545699119568 1.506797194480896 -0.40367263555526733 -0.5733820796012878 0.5278170108795166 -0.3561263382434845 0.10932402312755585 -0.4242846965789795 -0.6589868068695068 1.0699678659439087 -0.13688206672668457 0.25838911533355713 -0.24944046139717102 -0.09861921519041061 -1.9675215482711792 1.6321327686309814 -0.2711341679096222 1.6578073501586914 -1.0407650470733643 
1.6880074739456177 -1.4379842281341553 -0.9952715039253235 -0.33742594718933105 -0.5018352270126343 -1.304963231086731 0.1634233444929123 1.864213466644287 0.5432665348052979 -1.3313618898391724 -1.043095350265503 -1.5118252038955688 -0.5367157459259033 -0.29202714562416077 0.08254405856132507 -0.26209959387779236 0.1553780734539032 0.03201736882328987 -0.3665274977684021 0.598480224609375 0.06558423489332199 -1.4500961303710938 -1.3767162561416626 -0.5721927285194397 -0.6263477802276611 0.5204181671142578 -0.23369069397449493 -0.6557770371437073 0.2517532706260681 -0.0299373846501112 1.4887672662734985 -0.07253946363925934 -1.211118459701538 0.2424120157957077 0.9956033825874329 0.8434311151504517 -0.9751493334770203 -0.4852181673049927 0.0859222561120987 0.8444918394088745 
0.23115791380405426 0.7655211091041565 1.298377275466919 0.8882219791412354 -0.7467363476753235 0.5965097546577454 -2.871981143951416 0.2699750065803528 0.8368712663650513 -0.14813043177127838 0.11530601233243942 -0.2730737626552582 0.9604436159133911 -1.879777193069458 -0.13503803312778473 -1.802187204360962 1.0460119247436523 -1.6337816715240479 -0.27767038345336914 -0.0920024886727333 0.801850438117981 -0.33944931626319885 -0.799693763256073 0.9922280311584473 0.05433910712599754 0.7508230805397034 -0.4540915787220001 -1.1473238468170166 -0.008559518493711948 1.3721309900283813 -1.4783180952072144 0.6714170575141907 -1.5393153429031372 0.7392472624778748 -0.5864861011505127 0.35076314210891724 0.35389888286590576 0.85767662525177 0.5840950608253479 -1.7293283939361572 
0.46634674072265625 0.5590299367904663 1.6086100339889526 -1.6965118646621704 0.13788369297981262 -0.550441563129425 -0.034629568457603455 1.6403511762619019 1.379379153251648 0.6951178312301636 0.6991972327232361 1.1473922729492188 -1.1372179985046387 1.0120840072631836 -1.0847182273864746 -0.5145682096481323 0.6931049823760986 1.4545402526855469 0.6740047931671143 -1.1344228982925415 -1.097974419593811 1.419895887374878 -0.4328184723854065 -0.6104006171226501 -0.8498662114143372 1.050064206123352 -0.6448594927787781 1.2903857231140137 0.5294449925422668 0.6534350514411926 -0.3152793347835541 -0.9729092717170715 0.7077537775039673 -0.5660021901130676 -1.74342942237854 -1.132128357887268 0.48920419812202454 1.3781791925430298 0.39232057332992554 2.005195379257202 
0.860137939453125 -0.5333749651908875 -0.13185225427150726 -1.3604744672775269 0.509055495262146 -1.1534532308578491 0.36089640855789185 -0.11084975302219391 -0.8008438944816589 0.30678892135620117 -0.7672572731971741 -1.0789662599563599 -0.7180285453796387 -0.33700332045555115 -0.3755074739456177 0.1242998018860817 -1.2184834480285645 1.3791358470916748 0.8126975297927856 -1.9427870512008667 -0.43796250224113464 -0.6787425875663757 -1.0447242259979248 0.42076313495635986 0.404244065284729 0.657054603099823 0.34292060136795044 -0.07810656726360321 0.9362682104110718 0.744774580001831 0.4703819453716278 -0.030261628329753876 0.9860364198684692 -1.9632419347763062 -0.8197773098945618 -1.0047106742858887 2.01129150390625 0.3936881721019745 -0.4612457752227783 0.15340761840343475 
0.06511569768190384 0.9673915505409241 1.2869997024536133 -1.5884301662445068 0.6884425282478333 1.7816288471221924 -0.44028741121292114 -0.8456848859786987 1.8075095415115356 1.090850591659546 0.6501266956329346 0.22666509449481964 -0.8776736855506897 1.7520256042480469 -0.7056127190589905 1.0628819465637207 0.5845076441764832 -0.2863117456436157 0.638248085975647 -0.343248188495636 -0.23667843639850616 -0.07007704675197601 -1.7806675434112549 0.6313302516937256 0.049514591693878174 1.4879565238952637 1.1396431922912598 1.8801144361495972 2.5111758708953857 1.1769592761993408 -1.898406744003296 -0.5062536597251892 0.7951816916465759 -2.0220446586608887 0.24560752511024475 -0.051879435777664185 -0.9358020424842834 0.31445053219795227 0.2609030306339264 -0.1010027602314949 
-0.5002419352531433 0.4396706223487854 1.727031946182251 -0.3515569269657135 -0.49496936798095703 0.5172476172447205 1.7689319849014282 0.3010970652103424 -0.2244667261838913 0.6275042295455933 0.6576457619667053 -1.2602894306182861 0.3224288523197174 -2.797421932220459 0.2960585057735443 0.5488983392715454 0.3266353905200958 1.3763768672943115 0.8687922358512878 1.0374176502227783 -0.25709235668182373 1.0017118453979492 1.3507752418518066 -0.8784538507461548 1.309725046157837 1.3580530881881714 0.06577228754758835 1.2235236167907715 -0.9673469066619873 0.2169708013534546 -0.03949175402522087 -0.058151960372924805 0.4228999614715576 0.9430103302001953 -0.07542777806520462 0.3507716655731201 1.2961556911468506 -1.0321295261383057 2.1910834312438965 0.4538470208644867 
1.2010295391082764 -0.37015077471733093 0.43791303038597107 1.4268008470535278 0.3833935856819153 -0.8181053400039673 -0.3660769760608673 0.4163360595703125 -1.5396493673324585 -2.5165998935699463 -2.8761775493621826 1.3516721725463867 0.41149720549583435 2.0489308834075928 -0.3054046034812927 0.19961406290531158 0.1652248501777649 0.3022010028362274 0.8482566475868225 -0.3996000289916992 -0.10994841903448105 -0.6453938484191895 1.141965627670288 -0.38268914818763733 0.5631850361824036 -0.4555782675743103 0.4791008532047272 0.5296754240989685 1.2442736625671387 0.5236150026321411 0.16302619874477386 -0.47741803526878357 -0.5099986791610718 1.0945886373519897 -0.20995762944221497 -0.607767641544342 0.16878381371498108 -0.6427356600761414 -0.29220548272132874 -0.26605090498924255 
-1.4259486198425293 -0.7402044534683228 -0.5144428014755249 -0.40765589475631714 0.7091295719146729 -0.2421851009130478 -2.3353071212768555 -0.5089367032051086 -2.054734468460083 0.48103591799736023 -1.791873574256897 0.679569661617279 -0.5728157758712769 -0.4365481436252594 -0.2899020314216614 1.6466690301895142 0.9594616889953613 2.0136754512786865 0.24963630735874176 -0.48474839329719543 0.28094565868377686 0.5963348150253296 -0.9948128461837769 -2.3134870529174805 -0.09690800309181213 1.0586422681808472 -1.1093686819076538 0.10225077718496323 0.7485252022743225 -0.47882771492004395 1.2504633665084839 -0.09227407723665237 1.8083937168121338 -0.16474048793315887 0.17459796369075775 -0.06029351055622101 -0.7462993860244751 -0.4176325500011444 0.11348098516464233 -1.310082197189331 
-0.4108908474445343 0.9242044687271118 0.04149317741394043 -1.1500033140182495 -0.819859504699707 -0.010818594135344028 0.37453141808509827 -1.4329464435577393 -0.3950834274291992 -0.15039584040641785 -1.239536166191101 1.5519965887069702 0.25846508145332336 -0.24603448808193207 -1.6686569452285767 0.5531784296035767 0.6762822270393372 1.0518172979354858 -1.0137358903884888 -1.157321810722351 1.2430803775787354 -0.25930774211883545 -1.727784276008606 0.3517859876155853 -1.198539137840271 1.1253588199615479 2.142319440841675 0.8906020522117615 0.5710633993148804 -0.7390482425689697 0.3504624664783478 -1.5510411262512207 -0.6768342852592468 -1.8312511444091797 -0.816326916217804 1.8103593587875366 0.5320819020271301 -0.6703251600265503 1.347325325012207 0.28497999906539917 
0.053342729806900024 -0.6653271913528442 1.9263328313827515 1.0450656414031982 0.10403965413570404 1.2924021482467651 0.9755253791809082 1.5282912254333496 -0.18051986396312714 1.8874810934066772 -0.5185666680335999 -1.0301376581192017 0.04730364307761192 -0.637821614742279 -0.47756412625312805 -0.7566615343093872 -0.3432556092739105 0.2726495563983917 0.0588473305106163 0.14463119208812714 -1.1458539962768555 1.1261703968048096 0.6310640573501587 0.5889024138450623 -1.679355263710022 1.217706322669983 1.023761510848999 1.1635206937789917 -0.48041197657585144 -0.9322601556777954 0.8757570385932922 -0.21933043003082275 -0.8926200866699219 -0.4883144497871399 0.9696393013000488 -0.12887874245643616 -2.096714973449707 1.3491079807281494 0.8845646381378174 1.6795248985290527 
-0.6508187651634216 0.31339898705482483 1.758517861366272 -0.9943990707397461 0.7673226594924927 -0.01756683737039566 -0.4834083616733551 0.8752881288528442 0.7978324890136719 -0.4589937627315521 0.9858357310295105 0.3911993205547333 -1.2407982349395752 0.6271116137504578 -0.3338557481765747 0.6811053156852722 0.5054266452789307 -0.7228763103485107 0.38300856947898865 -0.1858052760362625 -2.680131673812866 -3.076399803161621 0.6627788543701172 -0.7987253665924072 0.7693679928779602 -0.4625917077064514 -1.6367710828781128 0.676138699054718 -0.19740281999111176 -2.2910549640655518 0.974625825881958 0.4286487400531769 0.15789099037647247 0.6385464668273926 -0.13096413016319275 0.6013211607933044 0.48673883080482483 1.0689665079116821 -0.3925672173500061 0.007430323865264654 
-0.3688672184944153 -0.682841420173645 -0.2779322862625122 -0.9235023260116577 0.17168082296848297 -2.1630799770355225 0.8753313422203064 -0.33307746052742004 -0.3055250942707062 -0.16616110503673553 -0.5408998727798462 -1.7236530780792236 2.625397205352783 -1.5993752479553223 -0.33634984493255615 1.6346514225006104 1.136003017425537 1.5734962224960327 -0.03184906765818596 -0.3729002773761749 0.704688310623169 1.2633548974990845 -0.33021876215934753 0.08538679033517838 0.24964521825313568 -0.007048104424029589 0.2691989839076996 0.684970498085022 0.40638118982315063 0.4356282651424408 -1.4733097553253174 0.7020609378814697 1.858038306236267 -0.8789247274398804 1.1536355018615723 -0.32945939898490906 0.22210529446601868 -0.4050824046134949 -0.051876250654459 0.09782139211893082 
-1.416908621788025 -0.358000785112381 -0.41708433628082275 0.06475994735956192 -0.05958200991153717 1.6527118682861328 -0.3907753825187683 0.0393451452255249 -1.3605579137802124 -0.11085362732410431 0.4310219883918762 0.2701752483844757 -0.6602063775062561 -0.5080553889274597 -0.9510990381240845 1.3730368614196777 -0.24170467257499695 1.8920961618423462 1.9416794776916504 0.36255574226379395 1.510114312171936 1.148201584815979 1.1434767246246338 -0.800977885723114 -1.0463645458221436 -0.8017846345901489 -1.4834067821502686 1.8768261671066284 0.9527726173400879 0.20924408733844757 0.8453996777534485 -0.44951143860816956 0.5325673222541809 0.898216724395752 0.10469485819339752 0.43097472190856934 0.16073676943778992 -0.2777949571609497 -0.7599794268608093 -0.36172518134117126 
0.15835241973400116 -1.5773509740829468 1.923922061920166 -0.4472532570362091 -0.6536744832992554 -0.2861708402633667 0.13833311200141907 0.7295814752578735 -1.5774939060211182 -0.859261691570282 0.5809160470962524 -0.5105252861976624 -0.1751808077096939 0.7375733256340027 -0.5737393498420715 0.6464417576789856 0.47691774368286133 0.22693239152431488 0.9929972290992737 0.4622980058193207 2.224846601486206 -0.1454804539680481 -0.5327795147895813 -0.5570940375328064 -0.46147069334983826 -0.8021005988121033 -0.9631165266036987 0.30862727761268616 -0.7219147682189941 2.178356170654297 -0.696997880935669 -1.319541573524475 -1.4612582921981812 -0.3495120108127594 -0.16150180995464325 0.21264977753162384 0.8495203852653503 2.1678342819213867 -1.8231263160705566 0.17088335752487183 
2.200908660888672 1.347859501838684 0.8928311467170715 0.8396764397621155 -0.07631313800811768 -0.3859872817993164 -0.9504565596580505 -0.26269522309303284 -0.11586542427539825 -0.6837431192398071 0.7849833369255066 0.36874768137931824 -0.7790097594261169 1.7121479511260986 0.14805500209331512 -0.4991576075553894 -1.4083971977233887 1.1976087093353271 -0.23207128047943115 1.1249244213104248 -1.2329877614974976 -1.0325897932052612 -0.5781762599945068 0.531579852104187 -0.814182698726654 -1.1597927808761597 -0.19099651277065277 -0.6191011667251587 -0.8182602524757385 -0.4235861897468567 -0.7792933583259583 -0.08371823281049728 -1.0438594818115234 1.609647512435913 0.15393559634685516 0.33310768008232117 -0.5300007462501526 0.3221447467803955 -0.6599532961845398 -0.7570490837097168 
-0.3892084062099457 0.5046022534370422 -0.0687745064496994 0.56461501121521 0.8306412696838379 -1.5038926601409912 0.8835561871528625 -0.09737404435873032 -0.40897268056869507 1.490573763847351 -0.3741721212863922 0.5064933896064758 0.9810917377471924 -0.11095189303159714 0.42887380719184875 -0.3369523286819458 0.01272615883499384 -0.6084471344947815 0.6022679805755615 0.6325240731239319 0.5367277264595032 0.8518344163894653 0.17500829696655273 -0.5720734000205994 0.02328559383749962 -0.18189504742622375 -1.5428895950317383 -0.09453871101140976 1.6492420434951782 0.6320176720619202 1.7869120836257935 -0.9962893128395081 0.19516634941101074 -0.28995174169540405 -1.1321043968200684 1.2531030178070068 -0.7863075137138367 0.31108641624450684 -1.2694183588027954 -0.7222103476524353 
-1.784053921699524 -0.5651326179504395 -0.004849146585911512 0.23016640543937683 0.7491196393966675 -1.2051409482955933 -0.09106339514255524 -1.0202194452285767 -0.27410414814949036 1.4203832149505615 0.4443686902523041 -1.227490782737732 0.8164278864860535 -0.6949335932731628 0.06888850033283234 1.1073198318481445 0.8857471346855164 -1.0188207626342773 0.4001213312149048 -0.4705294668674469 1.4096755981445312 0.820582389831543 -0.1742224544286728 0.8058997988700867 -0.8190484046936035 0.12732788920402527 0.6779674887657166 -0.20223955810070038 0.3120303153991699 1.6303004026412964 -0.2595287561416626 0.2973445951938629 0.5764414668083191 -0.05498432368040085 0.8078338503837585 0.17886081337928772 0.4260387718677521 -0.663421094417572 -0.24778422713279724 -0.46570128202438354 
0.32607096433639526 0.18800456821918488 0.9078644514083862 -0.6553579568862915 -0.290418803691864 -0.7236876487731934 -1.2671645879745483 0.009976102039217949 1.1697890758514404 0.46699926257133484 -0.227508082985878 -0.4430173635482788 -2.357145071029663 -2.2340970039367676 -0.7876206040382385 -2.2498340606689453 2.159301519393921 0.2880438268184662 0.011992021463811398 -0.07872813940048218 1.4246982336044312 -0.7142685651779175 -0.16898037493228912 -0.19681403040885925 -0.22988715767860413 -0.8639046549797058 -0.18806880712509155 -0.1755007952451706 -0.674811840057373 1.1000499725341797 -0.10848118364810944 -0.3924584686756134 1.7359869480133057 0.014757131226360798 1.5002455711364746 0.38825759291648865 -1.1385481357574463 1.5476140975952148 0.9413679838180542 0.13695722818374634 
2.102909803390503 0.26772794127464294 -0.6882902979850769 2.206294536590576 -0.588936448097229 -0.3222804665565491 -1.4517911672592163 -1.3644155263900757 1.5919991731643677 0.38978901505470276 1.0878725051879883 1.2899861335754395 -0.2844252586364746 0.0897311195731163 -1.2328996658325195 1.0773249864578247 0.6673516035079956 0.2964446544647217 -1.7379114627838135 0.47861072421073914 -1.7854565382003784 0.7176130414009094 0.3146042227745056 -0.7644716501235962 -0.18288470804691315 -0.6620518565177917 0.41200271248817444 1.4088279008865356 -0.12024253606796265 -0.8411421179771423 -0.9913144707679749 -2.3024306297302246 -0.9459679126739502 -0.7285497188568115 0.4301217496395111 -2.0491061210632324 -0.3242672383785248 1.4481801986694336 -2.090991258621216 -0.6123746633529663 
-0.9835817813873291 0.7274408340454102 -1.588759422302246 -0.18911617994308472 1.8255839347839355 0.9840459227561951 0.09831744432449341 0.7780110836029053 0.1751602739095688 -1.0247540473937988 0.1612444370985031 1.9196932315826416 0.4669557213783264 0.25710949301719666 1.042320728302002 -0.23396649956703186 -1.3290284872055054 0.04815328121185303 -0.10913342982530594 -0.787431538105011 1.062907099723816 0.16464973986148834 0.8957651257514954 1.8072704076766968 0.39373779296875 1.3108556270599365 0.09167887270450592 0.8196380138397217 -0.8570737838745117 -0.24714817106723785 -0.9668975472450256 1.6953463554382324 -0.5086846947669983 -0.4818551242351532 -0.4681592881679535 -0.09658101201057434 -0.5858954787254333 2.093449592590332 -0.27520573139190674 0.19484640657901764 
1.030476689338684 -0.1701180636882782 -2.3712172508239746 -0.3473491072654724 1.0256201028823853 -0.6714431643486023 -0.6716386079788208 -1.3202444314956665 1.8896294832229614 -0.7729479670524597 1.4799352884292603 1.0971221923828125 -0.26905545592308044 0.24580945074558258 -1.545594573020935 0.482247531414032 -0.07366678863763809 -1.3296695947647095 0.714031457901001 -0.4995386004447937 1.0521678924560547 -0.5826646089553833 -0.4181087613105774 0.9250054359436035 -0.9584880471229553 1.1416760683059692 0.39181050658226013 -1.3837116956710815 -0.3427363932132721 0.05406719446182251 -0.4572516679763794 1.2052737474441528 -0.8249514102935791 -2.501152276992798 -0.7017689347267151 1.3473470211029053 0.6465563774108887 1.2006525993347168 -0.46133503317832947 -0.9873565435409546 
0.19194473326206207 -1.9908838272094727 0.6368969082832336 -1.72552490234375 -0.32507389783859253 0.8080888390541077 -0.4086127281188965 -0.8317831754684448 -1.6236753463745117 -0.8543930649757385 -0.4241970181465149 1.2160755395889282 -0.035205014050006866 0.4062806963920593 2.0850155353546143 0.8862035870552063 -0.5013039112091064 -0.09970308840274811 0.7126079201698303 0.8442860245704651 -0.5120229721069336 -2.3456594944000244 0.27606895565986633 0.8738561868667603 -0.018236100673675537 -0.11917910724878311 1.0748928785324097 -1.2631480693817139 -0.8503621816635132 -1.4342769384384155 -0.7218644618988037 0.1924540251493454 -0.05090101435780525 -0.26406410336494446 0.5227056741714478 -0.19506263732910156 0.19530677795410156 0.4576708972454071 0.3886961340904236 -0.7499950528144836 
-0.3701794147491455 -0.5850354433059692 0.7500667572021484 0.5915040969848633 0.3477417528629303 -0.4371156692504883 -0.6998202204704285 1.4136683940887451 0.8409053087234497 -0.03265463560819626 -1.2711628675460815 0.9572901129722595 0.42347797751426697 1.2547566890716553 -0.8867244124412537 -0.4743945002555847 1.1857495307922363 -0.10221801698207855 0.001902556512504816 -1.6067190170288086 0.20522618293762207 0.5993034243583679 0.28148263692855835 -0.7715819478034973 0.5946931838989258 -0.41488274931907654 -0.29898926615715027 -0.07387551665306091 0.9027695655822754 0.4928876757621765 -0.3837277889251709 0.9124717712402344 -1.5681078433990479 0.4538811445236206 -0.11281581968069077 -0.9847142100334167 -0.8951482772827148 1.077689290046692 0.9901939034461975 -1.0397663116455078 
1.4375865459442139 -0.410434752702713 -0.1904156357049942 -1.3284156322479248 0.08347197622060776 -0.4593569040298462 -0.6525200009346008 -0.2950695753097534 0.10099951177835464 -0.6502346396446228 -0.9951047301292419 0.7043566703796387 1.919533371925354 -0.02103310264647007 0.04603762924671173 -0.3393973708152771 -1.2481319904327393 0.02965582348406315 0.03489332273602486 0.8549811244010925 -1.127686858177185 0.7130349278450012 -1.270311951637268 1.0099313259124756 3.1058638095855713 -0.07124707847833633 0.27906081080436707 2.260551929473877 -0.4380291700363159 -1.091991901397705 0.9637755751609802 1.8774306774139404 2.2097883224487305 1.0289465188980103 1.6527084112167358 1.2682018280029297 -1.2860031127929688 0.764451801776886 1.6076668500900269 -2.3742692470550537 
0.2471228539943695 0.22812196612358093 0.7224259972572327 0.08001825213432312 -1.1882919073104858 -0.750028669834137 -1.2123738527297974 2.1345977783203125 1.6994047164916992 0.7522891163825989 -0.383023738861084 -0.29796209931373596 -0.14679919183254242 2.4699084758758545 -0.06269697099924088 -0.8149657249450684 0.3809843957424164 0.441405326128006 0.004700624383985996 0.5409263372421265 -1.315813422203064 -0.9568992257118225 1.97702956199646 0.5865588784217834 -0.594110369682312 0.46601516008377075 -1.173535704612732 -0.027949072420597076 0.587090015411377 -1.4363667964935303 -0.9357391595840454 0.1275704801082611 1.827081322669983 1.3634941577911377 1.360082745552063 0.2730353772640228 -0.6513075828552246 0.3577692210674286 -0.2675374150276184 -0.4791424870491028 
-0.568910539150238 0.850219190120697 -0.8410739302635193 -0.8082854151725769 -0.7407982349395752 0.21308167278766632 1.3790507316589355 0.35819557309150696 -1.7509087324142456 1.2339234352111816 0.39117780327796936 0.4488808810710907 -0.9807524681091309 0.42920634150505066 -0.1175910010933876 0.36044150590896606 -0.01833975315093994 0.4639187455177307 0.5295379161834717 0.514394998550415 1.688397765159607 -0.1992914080619812 0.3473842144012451 0.21814222633838654 0.008679023012518883 -1.9482440948486328 -0.4033352732658386 2.3967926502227783 0.8501351475715637 0.7446441054344177 -0.0456848070025444 0.12591177225112915 -0.2490144520998001 0.10217264294624329 -0.8046701550483704 -0.1551624983549118 0.0643223375082016 -0.753149151802063 -0.3402470052242279 1.0415384769439697 
-0.4927167594432831 1.7238134145736694 -0.38509124517440796 0.6918122172355652 0.11023768037557602 0.49491336941719055 -1.2854442596435547 0.2807357609272003 -1.5297181606292725 -0.942582905292511 -1.081269383430481 0.5408141613006592 -1.3755465745925903 -1.7822020053863525 -1.5263161659240723 1.2858449220657349 0.5053455233573914 0.9302397966384888 0.2222682684659958 0.5369808077812195 -0.0009649665444158018 -0.2665112316608429 0.417641282081604 -0.4718601107597351 -1.6168768405914307 1.4098846912384033 0.8030958771705627 0.47497811913490295 -0.306440144777298 -0.5087773203849792 -0.7605945467948914 -0.7664989233016968 -0.866839587688446 -0.2608925700187683 -0.2942519187927246 -1.8160908222198486 1.779933214187622 -1.00655198097229 -0.7864370346069336 -1.5876014232635498 
1.3543710708618164 0.3584612309932709 0.8406850099563599 -0.41660410165786743 -0.8819199204444885 -1.4027758836746216 0.15522025525569916 -2.250081777572632 2.934875965118408 -0.05061638355255127 -0.5620914697647095 0.3314931094646454 0.7101155519485474 1.0603080987930298 0.6904448866844177 0.7212483286857605 0.004279805347323418 0.26042523980140686 0.8215909004211426 -1.708306074142456 0.11893948167562485 -1.4043420553207397 0.2189279943704605 0.9180142283439636 -0.5646565556526184 0.6014290452003479 0.3955293893814087 -0.5603638291358948 -0.19092705845832825 -1.2722440958023071 0.8275414109230042 -0.5760246515274048 2.4988863468170166 -0.19910095632076263 0.025391340255737305 -0.13200242817401886 2.1297261714935303 0.6879686117172241 2.1951749324798584 -0.15322737395763397 
0.5509848594665527 1.0840998888015747 0.17146825790405273 -2.9937562942504883 1.0836890935897827 -1.5616294145584106 0.704818844795227 0.5752432942390442 1.0160548686981201 -0.448756605386734 -2.378319501876831 0.3732415437698364 -0.24955202639102936 0.4820435047149658 -0.9472239017486572 -1.1111243963241577 -0.23986870050430298 0.20770859718322754 -1.5640349388122559 -0.0821707472205162 0.8337857127189636 0.7812153697013855 -0.6768501996994019 -0.17803800106048584 0.7314772009849548 -0.9080639481544495 1.143030047416687 -0.08266767114400864 -0.4249672293663025 -2.0676426887512207 0.8739319443702698 2.1688942909240723 -0.9712027907371521 1.027320146560669 0.055386677384376526 0.8218759894371033 -0.6136391162872314 1.5632779598236084 -0.6806138753890991 0.8537557125091553 
-0.017950205132365227 -0.44814133644104004 -0.5978788137435913 0.3581419885158539 1.3270924091339111 0.3906134366989136 0.5913258194923401 -0.1280175745487213 -0.19148461520671844 0.1807224303483963 1.77065110206604 0.5820321440696716 0.38744860887527466 -1.5590550899505615 0.7296501994132996 0.1787235140800476 1.363289713859558 0.5916548371315002 0.10490834712982178 -0.26862406730651855 1.9081461429595947 0.1856701523065567 -1.1797252893447876 0.7033368349075317 -0.8927241563796997 1.6512852907180786 -0.11748382449150085 -0.3572201132774353 0.7348901629447937 0.9536062479019165 -1.1990984678268433 -0.46415260434150696 -0.6428398489952087 0.9651027917861938 1.4706228971481323 -0.28776511549949646 -1.2877029180526733 1.2843130826950073 0.06365851312875748 0.7545167207717896 
-0.13385839760303497 -0.19439220428466797 1.834290862083435 1.1062878370285034 -1.473464012145996 1.170405387878418 1.0670372247695923 1.024399757385254 0.9874959588050842 -0.3612046241760254 0.9218561053276062 -0.28246498107910156 0.6749005317687988 -0.22934885323047638 -1.2289658784866333 -0.06534093618392944 -0.5303424000740051 -1.8517929315567017 -1.168826937675476 -1.5862370729446411 -0.22318674623966217 -1.4964593648910522 0.8682064414024353 -0.5174270272254944 0.2391006499528885 -0.3818580210208893 -0.022269468754529953 -1.1757802963256836 -2.376619815826416 1.584511399269104 0.9738907217979431 1.1495333909988403 -0.4929030239582062 0.4322468936443329 -0.8712553381919861 0.1287325769662857 0.2931068539619446 -1.5729068517684937 0.15382616221904755 -0.11041391640901566 
1.7831796407699585 0.5245263576507568 -0.9202084541320801 -1.2357962131500244 -0.43435728549957275 0.32764655351638794 0.7754327058792114 -0.05715401470661163 0.7538062930107117 -0.3438728153705597 -0.2724453806877136 0.5739834308624268 1.240919589996338 0.3767867684364319 0.9473637938499451 1.0308064222335815 -0.07768287509679794 0.10719907283782959 0.9583271145820618 1.236019253730774 1.5460145473480225 -0.11333515495061874 -1.732056736946106 1.316502332687378 1.0389842987060547 -0.8632181882858276 -0.08646324276924133 -1.5768927335739136 -0.5407578349113464 0.726476788520813 0.09314920753240585 -0.5560776591300964 1.3563657999038696 -0.18009543418884277 -1.0685030221939087 -1.1964387893676758 1.4184176921844482 -0.8984947204589844 -0.1550777107477188 -0.9231252074241638 
-0.9294154644012451 -0.7548080682754517 0.40597623586654663 -0.02375911734998226 1.2930138111114502 -1.5289907455444336 -0.032530348747968674 -0.4427834153175354 0.5034293532371521 -0.16640686988830566 -1.0771193504333496 -1.5196105241775513 0.0803116112947464 -1.1936790943145752 0.32889294624328613 -1.2211649417877197 0.7110472321510315 -0.5087387561798096 -0.2226053774356842 -0.8779948949813843 -0.05158674344420433 -0.03441435843706131 0.4046473205089569 0.3506339192390442 -1.2398346662521362 -1.0249321460723877 -0.2981812059879303 -0.35560718178749084 -1.196139931678772 -3.0427439212799072 -0.24233241379261017 -0.07433324307203293 -0.07651187479496002 -0.7802197337150574 0.1389760971069336 1.3523786067962646 -0.3583371937274933 0.9124350547790527 0.40814730525016785 -0.5493248701095581 
0.3579476475715637 0.1672275960445404 0.21149161458015442 0.8626068830490112 -0.004819648806005716 0.4623522460460663 -0.8967768549919128 1.9256089925765991 -0.6900310516357422 -0.10754595696926117 0.32860106229782104 1.225730061531067 -0.5477017760276794 -0.15448293089866638 0.10849007219076157 0.30280062556266785 0.8362309336662292 -0.7005580067634583 -1.6664299964904785 -1.5022430419921875 0.9760704636573792 0.6620382070541382 -1.5182092189788818 -0.75235515832901 3.4435834884643555 1.8902214765548706 1.1705925464630127 0.31722959876060486 -1.1914393901824951 -0.9050855040550232 0.8791936635971069 1.299831509590149 0.9313064217567444 3.2634851932525635 -2.743962287902832 1.055726170539856 0.6392876505851746 -0.2057015299797058 -0.5196976065635681 0.8144992589950562 
-0.5748600959777832 -0.036926910281181335 -0.43945804238319397 0.7003231644630432 -0.956956684589386 -1.7707679271697998 -0.14049753546714783 -0.1079564094543457 -0.3295699954032898 0.3564225435256958 -0.3578011393547058 -0.7981431484222412 0.4204891324043274 -0.11631695926189423 -0.14534854888916016 -1.2867658138275146 -0.384103000164032 1.0691540241241455 1.7664273977279663 -0.3264683783054352 -0.17380407452583313 -1.14251708984375 -1.9657350778579712 -0.30316439270973206 -1.3602614402770996 -1.989475131034851 -0.11593778431415558 0.49686357378959656 1.058382511138916 0.5932454466819763 -0.3668419420719147 0.3366457223892212 -1.56365168094635 0.038147568702697754 2.4431135654449463 -1.1696574687957764 -0.23588554561138153 0.30042412877082825 0.07906411588191986 -0.8619805574417114 
-0.38573670387268066 0.45193520188331604 0.9453101754188538 -1.7169572114944458 -0.2768037021160126 -0.2144269496202469 -0.773016095161438 0.07063496857881546 -0.9918277859687805 -0.1487915962934494 -1.2081997394561768 -0.01315255742520094 0.5676443576812744 -0.33201971650123596 1.609802007675171 0.22322481870651245 0.1436263471841812 -0.6681010127067566 -1.40745210647583 1.922127604484558 -1.147115707397461 -0.16505607962608337 -0.9746036529541016 -1.098095417022705 -0.7703498601913452 0.5114163160324097 0.5040243268013 1.0361790657043457 -0.562226414680481 -0.5410785675048828 -1.0014394521713257 -1.709923505783081 -1.2078527212142944 -0.24041737616062164 0.8444923758506775 0.31291553378105164 -0.8772557973861694 0.18021921813488007 0.35162192583084106 -0.18953318893909454 
0.7257068157196045 1.1227302551269531 0.34898605942726135 0.7176743745803833 0.5138717293739319 1.7268216609954834 -0.5396276712417603 0.1112283244729042 0.5816347599029541 0.8885306119918823 -0.03990025818347931 1.3936476707458496 0.7665592432022095 2.3541624546051025 -0.5060142278671265 -0.42015212774276733 0.7985208034515381 1.6192599534988403 0.31788232922554016 -0.43142181634902954 -0.7090301513671875 -0.3770809769630432 1.171278953552246 -0.7408918738365173 -0.21446561813354492 -0.7899145483970642 2.3597748279571533 0.47702106833457947 0.014677931554615498 1.1401519775390625 1.2981568574905396 -1.6298561096191406 -0.5412271022796631 -0.5181210041046143 -0.011862970888614655 -0.30231696367263794 0.11193449795246124 0.30485087633132935 0.4146382212638855 -1.3319377899169922 
0.8941646218299866 -0.6486072540283203 -0.3650839924812317 -0.6272396445274353 -1.0566319227218628 1.0570282936096191 1.5047389268875122 -0.19722630083560944 1.1088907718658447 0.7016831636428833 -1.950060486793518 -1.19920814037323 0.7585029602050781 -0.11747954040765762 -0.9788819551467896 1.4674321413040161 0.33931776881217957 0.8533905148506165 -0.989316999912262 -0.5132738947868347 -0.06508972495794296 0.5273672342300415 1.2613047361373901 -0.9490265846252441 -2.075282335281372 -1.8369308710098267 -1.6588104963302612 -0.7530519962310791 1.6384731531143188 0.4623813331127167 1.1661593914031982 0.6871604919433594 0.17192544043064117 0.2304811328649521 -0.8071728348731995 0.1578044295310974 2.220179319381714 1.231640100479126 -0.595465362071991 -0.07709940522909164 
-0.4139725863933563 0.907072126865387 -0.7955344319343567 -0.16051974892616272 -1.476621389389038 0.20210018754005432 1.7147411108016968 0.39267483353614807 1.2308865785598755 0.13953372836112976 1.9377357959747314 -0.3426818549633026 -0.5590364933013916 -1.1174219846725464 -0.1137363463640213 0.21979990601539612 0.9292666912078857 0.7081664204597473 0.09303154796361923 -0.4277036190032959 1.0297056436538696 0.5837740898132324 -0.5995107293128967 -1.1028203964233398 -0.36623939871788025 0.5329073071479797 0.48565906286239624 -0.948976993560791 -2.2652175426483154 -0.7117505073547363 -0.1511414796113968 1.0138269662857056 1.5904648303985596 1.2576550245285034 2.5794389247894287 0.3939187228679657 -0.5870544910430908 0.08815407007932663 0.1458667516708374 -0.6587538719177246 
-1.6833932399749756 0.49168363213539124 0.1968725025653839 -0.8170252442359924 0.6265463829040527 0.1963878870010376 1.7978460788726807 -0.2798767387866974 -0.4717179834842682 0.5583717226982117 -0.5358678698539734 -0.9262098670005798 -1.4592092037200928 2.094606637954712 0.3519679307937622 -1.9570287466049194 0.8946473598480225 0.5758839249610901 -2.721808671951294 0.7023645639419556 -0.9098838567733765 0.8231706619262695 0.1629762202501297 1.1193779706954956 -0.3441922664642334 0.4065784811973572 -0.7527031302452087 -1.365638017654419 -1.9890682697296143 2.0383098125457764 0.47502636909484863 2.1842291355133057 1.0389811992645264 0.1172599121928215 -0.7390339374542236 -0.5117342472076416 0.7296812534332275 -1.1599135398864746 0.07424727827310562 0.052441101521253586 
-1.282660961151123 0.48777368664741516 1.1056145429611206 0.5291264057159424 -0.1864325851202011 -2.0689375400543213 -0.4920463263988495 1.221961498260498 -0.05475112050771713 1.811463475227356 -1.7585856914520264 -1.934056043624878 0.898012638092041 1.3031039237976074 -1.4414228200912476 -0.7223860025405884 0.059988830238580704 -0.027943231165409088 -0.23891115188598633 -0.2014915496110916 1.2931252717971802 -0.7864333987236023 0.31423938274383545 -0.3640253245830536 -0.2525618076324463 1.9462299346923828 2.271064519882202 -1.8673064708709717 -0.6116992235183716 0.5414421558380127 -0.554538369178772 0.9088158011436462 -1.1460599899291992 0.2122417539358139 1.4495952129364014 1.9047884941101074 0.19152288138866425 -0.7964869141578674 -0.6077057123184204 -1.3204419612884521 
-0.45528027415275574 -1.3127931356430054 -0.9893341660499573 1.5132077932357788 0.6600846648216248 -0.30510398745536804 -0.8049124479293823 -0.7125207781791687 0.1955758035182953 -1.8442050218582153 -2.115560531616211 -0.8534215092658997 -1.0548230409622192 -2.747368574142456 -0.8107303977012634 -0.8041653633117676 -1.313459873199463 -0.8885012269020081 0.6449726819992065 0.26981163024902344 0.7448428273200989 -1.4680215120315552 -0.1306806057691574 -0.8090959191322327 -1.4949408769607544 0.07419450581073761 -1.7598085403442383 0.7035951614379883 0.357187420129776 -0.39711499214172363 -0.6406524777412415 -0.18568646907806396 -0.4083494544029236 0.22818367183208466 -1.404210090637207 -0.9272907972335815 1.3322861194610596 0.2942626476287842 -1.003482699394226 0.46215468645095825 
-0.4133051037788391 0.5765488147735596 0.5853856205940247 0.9296030402183533 1.1507258415222168 -0.6853331327438354 -1.7590323686599731 1.0462851524353027 -0.7320423126220703 -0.45100700855255127 0.09371823072433472 -1.3079029321670532 0.7263832688331604 1.33778977394104 -0.9543889760971069 0.5507844686508179 1.214118242263794 -0.8636474013328552 0.11153364181518555 -0.3666008710861206 0.742271900177002 1.2225054502487183 0.6029143333435059 -0.4274389147758484 0.7826675772666931 0.6868201494216919 0.25408434867858887 -0.43313533067703247 0.7525646686553955 0.060293518006801605 0.4966132342815399 0.18779903650283813 0.1377192884683609 0.16141828894615173 0.7998595833778381 -0.3925459682941437 -0.7765563726425171 0.37648525834083557 -1.4735990762710571 0.10918304324150085 
-0.5163516998291016 1.271396279335022 -0.534477174282074 0.6083309054374695 -1.0370794534683228 -0.8721958994865417 -1.6361781358718872 1.098127007484436 0.0858580619096756 0.7856125235557556 0.9166774153709412 0.4853428900241852 0.7136683464050293 0.8098798394203186 1.2906254529953003 1.0333993434906006 -1.4317656755447388 -1.3059016466140747 -1.0293419361114502 -0.5844488739967346 0.8158429861068726 0.7567206621170044 0.33758148550987244 1.260810136795044 -0.582899272441864 -0.8131112456321716 -0.32900935411453247 0.6324295401573181 1.131381869316101 -1.623015284538269 -1.4812769889831543 0.22151269018650055 -1.2089921236038208 0.5652063488960266 -1.3164812326431274 0.3646104633808136 -0.5328187346458435 -0.5827692747116089 0.909884512424469 -0.5351178050041199 
0.44402721524238586 -0.17561428248882294 2.128368616104126 1.0665674209594727 -0.4944450259208679 -0.39950478076934814 1.4555009603500366 -0.8002774715423584 -0.4632567763328552 -0.6261743903160095 0.5118095874786377 0.8073421716690063 0.7949889302253723 -0.780439555644989 0.09931986778974533 -0.8415964245796204 -0.41543516516685486 -0.1499449759721756 0.029837675392627716 0.47470518946647644 -0.8807953596115112 -0.28352653980255127 -0.6563472747802734 0.06821194291114807 0.1129765585064888 -0.20720240473747253 0.8222046494483948 -0.668814480304718 0.1597832888364792 -0.047300904989242554 -1.352251648902893 1.0119717121124268 0.141730397939682 -0.11161725223064423 1.610609769821167 0.7329622507095337 0.8229950070381165 0.08478789031505585 1.0777270793914795 0.8008081912994385 
-0.5821850895881653 -0.25142598152160645 0.328390896320343 0.3566913306713104 -1.9657500982284546 1.8661646842956543 0.23622113466262817 0.9716840982437134 -0.09224386513233185 0.0734325498342514 -1.8018735647201538 -0.5739671587944031 0.42093905806541443 -0.22245773673057556 0.6539026498794556 -1.5939726829528809 1.7148362398147583 1.4085123538970947 -1.044960618019104 2.1997125148773193 -0.553976833820343 0.09307421743869781 -0.52871173620224 -0.14511315524578094 -0.05728190019726753 1.7789332866668701 -0.3988726735115051 1.3969839811325073 -2.096142292022705 0.5945226550102234 2.7241101264953613 0.44853588938713074 -0.4134403467178345 -0.9703570604324341 -0.5675376057624817 -0.48698553442955017 0.0710969790816307 0.7319406867027283 1.6851222515106201 -1.1667823791503906 
0.08158809691667557 -0.25471121072769165 -0.7194390296936035 -0.05881202593445778 0.7474254965782166 0.4908005893230438 2.5682902336120605 -1.0214630365371704 -0.38533782958984375 0.6360117793083191 -1.5978162288665771 1.3033075332641602 -1.2703417539596558 -1.4373642206192017 0.15634262561798096 -0.35170501470565796 -1.043654203414917 -0.1251053363084793 -0.7546596527099609 1.3378632068634033 0.4942281246185303 1.589064121246338 0.6332054138183594 0.636590838432312 0.8941982388496399 -1.298949122428894 -0.4287348985671997 1.4682621955871582 0.11597315967082977 -1.305356502532959 0.8016114830970764 -1.0684973001480103 0.32116687297821045 0.14948876202106476 -0.9674339294433594 2.1658811569213867 -0.6948884725570679 0.04555189609527588 1.9588446617126465 -0.4376448392868042 
